{
  "type": "NeuralNetworkGPU",
  "sizes": [
    2000,
    2
  ],
  "layers": [
    {
      "weights": [],
      "biases": []
    },
    {
      "weights": [
        [
          -0.04521319642663002,
          0.19887162744998932,
          -0.0855901762843132,
          -0.13997355103492737,
          0.18313974142074585,
          0.10051777213811874,
          0.12862548232078552,
          -0.02184954099357128,
          -0.11782790720462799,
          0.1593470573425293,
          -0.16706958413124084,
          -0.08002129197120667,
          0.0109768221154809,
          0.09319627285003662,
          -0.18635880947113037,
          -0.04571330174803734,
          0.11655844002962112,
          0.04018110781908035,
          -0.055415403097867966,
          -0.14327992498874664,
          0.1481758952140808,
          -0.13884791731834412,
          0.10741149634122849,
          0.1624682992696762,
          0.16202297806739807,
          0.1878301203250885,
          0.1656770408153534,
          0.06283223628997803,
          0.009393146261572838,
          0.0038733775727450848,
          -0.09879196435213089,
          0.07408931106328964,
          0.0964023768901825,
          0.18207255005836487,
          0.1433352828025818,
          -0.13596805930137634,
          0.010620414279401302,
          -0.12709571421146393,
          -0.186540424823761,
          0.04261677339673042,
          0.030897941440343857,
          -0.020755229517817497,
          -0.19018973410129547,
          -0.11945813149213791,
          -0.17002923786640167,
          -0.028362030163407326,
          -0.08825119584798813,
          0.026839425787329674,
          0.16221630573272705,
          -0.014609633013606071,
          -0.1596730798482895,
          0.08002810180187225,
          0.17595690488815308,
          0.08663573861122131,
          -0.04875050112605095,
          0.17443802952766418,
          -0.026188483461737633,
          0.04087580740451813,
          -0.13974818587303162,
          -0.12284347414970398,
          -0.09643910080194473,
          0.16565193235874176,
          -0.10409843921661377,
          0.16664056479930878,
          -0.15662021934986115,
          0.08344413340091705,
          -0.10592428594827652,
          0.187540665268898,
          -0.1004353016614914,
          0.021505549550056458,
          0.0665752962231636,
          -0.034513041377067566,
          0.09962061047554016,
          -0.19296669960021973,
          -0.1520771086215973,
          -0.13488900661468506,
          -0.18743789196014404,
          0.16471004486083984,
          0.09400045871734619,
          -0.18158495426177979,
          -0.1343991756439209,
          0.09938300400972366,
          -0.18384289741516113,
          -0.010983249172568321,
          -0.08887027204036713,
          0.05462624505162239,
          0.18004180490970612,
          0.09196410328149796,
          0.10027676075696945,
          0.12298297137022018,
          0.10274137556552887,
          -0.034063905477523804,
          0.13329194486141205,
          0.033718008548021317,
          0.03902037441730499,
          0.033978477120399475,
          0.055012818425893784,
          0.08545668423175812,
          0.10114264488220215,
          -0.07912266999483109,
          -0.03541213646531105,
          -0.04712491109967232,
          0.0018475716933608055,
          -0.17169946432113647,
          0.13354794681072235,
          -0.15385474264621735,
          0.16639745235443115,
          -0.039512619376182556,
          -0.1955166459083557,
          0.1230490580201149,
          -0.00833151489496231,
          0.11136996746063232,
          0.17066267132759094,
          -0.07346455752849579,
          -0.1662449836730957,
          0.0965186133980751,
          0.06325621157884598,
          -0.007868092507123947,
          -0.18462423980236053,
          0.03314388543367386,
          -0.04458509758114815,
          0.18531543016433716,
          0.06428153067827225,
          0.049291204661130905,
          -0.12776416540145874,
          -0.0375991053879261,
          -0.09265776723623276,
          -0.15416114032268524,
          0.08625345677137375,
          0.056843698024749756,
          -0.06570504605770111,
          -0.08639560639858246,
          -0.07155392318964005,
          -0.10527018457651138,
          -0.19138075411319733,
          -0.0962866023182869,
          0.1578769087791443,
          -0.012758751399815083,
          0.0819283127784729,
          -0.022121356800198555,
          0.06074143201112747,
          0.03733076900243759,
          -0.06418363749980927,
          -0.07302381098270416,
          0.09190673381090164,
          0.17770473659038544,
          0.06799983978271484,
          -0.14747220277786255,
          -0.0254952572286129,
          0.06444406509399414,
          0.03988385945558548,
          -0.11144088953733444,
          0.14606168866157532,
          0.0442359559237957,
          -0.05734744668006897,
          0.09700468182563782,
          0.11531650274991989,
          -0.12330544739961624,
          0.07335369288921356,
          0.017535824328660965,
          0.19192714989185333,
          -0.07272576540708542,
          0.1910746842622757,
          0.05508822575211525,
          0.07992591708898544,
          -0.02254876308143139,
          0.031692080199718475,
          0.12801048159599304,
          0.19636034965515137,
          -0.05313219130039215,
          0.15868428349494934,
          -0.13737422227859497,
          -0.0390491783618927,
          -0.0927523523569107,
          -0.030590470880270004,
          0.18478107452392578,
          0.03904961422085762,
          0.04418057203292847,
          -0.0883285328745842,
          0.049169111996889114,
          0.10409852117300034,
          -0.1270352005958557,
          0.1902403086423874,
          0.057345494627952576,
          -0.025653600692749023,
          -0.146796315908432,
          -0.0007202028064057231,
          0.01151922345161438,
          -0.008421646431088448,
          -0.17290152609348297,
          -0.10869789868593216,
          -0.18255984783172607,
          -0.07473155856132507,
          -0.13976141810417175,
          -0.1041305810213089,
          0.07281636446714401,
          -0.1522601693868637,
          0.12303397804498672,
          0.05915023013949394,
          0.16549080610275269,
          -0.14882312715053558,
          0.054944999516010284,
          -0.01854301616549492,
          0.13505150377750397,
          -0.10075598955154419,
          0.14680512249469757,
          0.15839701890945435,
          0.028270456939935684,
          0.039681609719991684,
          0.03376280516386032,
          0.12124799937009811,
          0.09255623817443848,
          -0.019172534346580505,
          -0.17287367582321167,
          0.03851522132754326,
          -0.11525899171829224,
          -0.17667651176452637,
          -0.06644084304571152,
          -0.05532857030630112,
          -0.14114712178707123,
          -0.05011816695332527,
          0.0891207605600357,
          -0.14347800612449646,
          -0.10974351316690445,
          0.15560632944107056,
          -0.051802098751068115,
          -0.12478315085172653,
          -0.034976776689291,
          0.07978387176990509,
          -0.13308085501194,
          -0.18384428322315216,
          0.18218421936035156,
          -0.04818185046315193,
          0.16762003302574158,
          0.13660719990730286,
          -0.16614305973052979,
          0.010595180094242096,
          -0.014003531076014042,
          -0.0102567533031106,
          0.05907690152525902,
          -0.1302533596754074,
          -0.12055836617946625,
          0.1897767186164856,
          0.16694200038909912,
          0.0059148287400603294,
          -0.1262178122997284,
          0.17654865980148315,
          -0.1872093677520752,
          0.006771366111934185,
          -0.10545597970485687,
          0.12347481399774551,
          -0.13936690986156464,
          0.19347979128360748,
          -0.16341285407543182,
          -0.034923162311315536,
          0.18249458074569702,
          -0.049326155334711075,
          0.06193942204117775,
          0.006596320308744907,
          -0.1162898913025856,
          -0.1271878331899643,
          0.08489793539047241,
          -0.10615827143192291,
          0.1538926512002945,
          -0.15138855576515198,
          0.17848192155361176,
          -0.14431853592395782,
          0.011949877254664898,
          0.012382169254124165,
          0.17911888659000397,
          0.05312531441450119,
          0.1039847657084465,
          0.14185690879821777,
          0.058931946754455566,
          0.05292833596467972,
          0.018455713987350464,
          -0.05644425377249718,
          0.02113247662782669,
          0.0027192304842174053,
          0.005259368102997541,
          -0.1334742307662964,
          0.08081527799367905,
          -0.029410040006041527,
          -0.15744061768054962,
          -0.08367227017879486,
          -0.05845194682478905,
          -0.09220855683088303,
          0.09112948179244995,
          -0.053193263709545135,
          0.08745953440666199,
          0.11096679419279099,
          0.20015539228916168,
          0.12344322353601456,
          0.0421491339802742,
          0.15301908552646637,
          -0.0693967193365097,
          0.06294581294059753,
          0.04999595507979393,
          0.08268130570650101,
          -0.03898033872246742,
          0.04543337970972061,
          0.1945793330669403,
          -0.0720856562256813,
          -0.1256883293390274,
          -0.16801020503044128,
          0.1608867645263672,
          0.08387471735477448,
          -0.11133520305156708,
          0.1855655014514923,
          0.18297818303108215,
          0.005144638475030661,
          -0.05988798290491104,
          -0.13465146720409393,
          0.03671744465827942,
          0.1888459473848343,
          0.07165178656578064,
          0.18203410506248474,
          -0.04314913973212242,
          -0.07588279247283936,
          -0.17378352582454681,
          -0.11476433277130127,
          -0.17415712773799896,
          -0.03867692872881889,
          0.08352527022361755,
          0.08530571311712265,
          0.003457331331446767,
          -0.056105080991983414,
          0.11327725648880005,
          0.19441083073616028,
          0.06271259486675262,
          0.07759847491979599,
          -0.0020533371716737747,
          0.12302189320325851,
          -0.13387805223464966,
          0.035198792815208435,
          0.1813940852880478,
          0.07899846881628036,
          0.0355488583445549,
          0.0793900340795517,
          -0.12780536711215973,
          0.011511510238051414,
          -0.158863827586174,
          0.03966754674911499,
          -0.04477788880467415,
          -0.15086334943771362,
          -0.06630395352840424,
          0.05745919793844223,
          -0.19709724187850952,
          0.16842177510261536,
          -0.11642046272754669,
          -0.09680797159671783,
          -0.05235067009925842,
          -0.07610572129487991,
          0.19884906709194183,
          0.016938162967562675,
          0.15161122381687164,
          -0.027137143537402153,
          -0.043167416006326675,
          -0.030673041939735413,
          0.061328813433647156,
          -0.19627250730991364,
          -0.11505062133073807,
          -0.1045977994799614,
          0.09549245238304138,
          -0.07306943088769913,
          0.09324714541435242,
          -0.15992698073387146,
          0.06570711731910706,
          -0.0014517965028062463,
          -0.04141280800104141,
          0.19803577661514282,
          0.06747876852750778,
          -0.012581209652125835,
          -0.11083950847387314,
          0.16581659018993378,
          0.1985115259885788,
          -0.17042449116706848,
          -0.18319444358348846,
          -0.040690887719392776,
          0.19802741706371307,
          -0.1525108963251114,
          -0.1603536456823349,
          0.10486387461423874,
          0.013377736322581768,
          0.1485876441001892,
          -0.16214439272880554,
          -0.1074669361114502,
          0.11954865604639053,
          0.14471466839313507,
          -0.021848812699317932,
          0.11764071136713028,
          -0.09042629599571228,
          -0.18839798867702484,
          -0.07548478990793228,
          -0.15544617176055908,
          -0.11489112675189972,
          0.1614026129245758,
          0.1710619181394577,
          0.098800890147686,
          0.0707956850528717,
          -0.19472254812717438,
          -0.14725080132484436,
          -0.09809400886297226,
          0.18256157636642456,
          0.06742912530899048,
          -0.14305993914604187,
          0.056236691772937775,
          -0.03088202327489853,
          0.1388723999261856,
          0.09582076966762543,
          0.05723879486322403,
          -0.14334890246391296,
          -0.08694077283143997,
          -0.07816256582736969,
          0.04636618494987488,
          -0.15076078474521637,
          0.0015143589116632938,
          -0.032779041677713394,
          -0.044381603598594666,
          -0.015791162848472595,
          0.1452222317457199,
          0.009886643849313259,
          0.17836666107177734,
          0.10983289778232574,
          -0.07280151546001434,
          0.10074082762002945,
          0.15844951570034027,
          -0.008593278005719185,
          0.01238355040550232,
          0.04174075648188591,
          0.16585512459278107,
          0.09572701156139374,
          0.11312545090913773,
          0.1116446927189827,
          0.09231004118919373,
          0.09380511939525604,
          0.15823569893836975,
          0.011485463008284569,
          0.018722711130976677,
          0.0016670015174895525,
          0.06560629606246948,
          -0.06555607169866562,
          -0.15101803839206696,
          0.01866901107132435,
          -0.03340641409158707,
          -0.05245254188776016,
          -0.07831992954015732,
          0.10095400363206863,
          -0.11844512075185776,
          0.1506008356809616,
          0.1766698956489563,
          0.15116964280605316,
          0.07878244668245316,
          0.09058308601379395,
          -0.1651228666305542,
          -0.013716811314225197,
          -0.18670564889907837,
          -0.027685360983014107,
          -0.010886150412261486,
          0.15715689957141876,
          -0.05907394737005234,
          -0.1049857810139656,
          -0.024022109806537628,
          -0.1931263655424118,
          -0.1644803136587143,
          -0.19884341955184937,
          -0.09204257279634476,
          -0.17576457560062408,
          0.02106330730021,
          0.10371819883584976,
          0.18547305464744568,
          -0.09039346873760223,
          -0.059239309281110764,
          0.07778400182723999,
          -0.03906610980629921,
          0.19783779978752136,
          0.03417114168405533,
          0.05883820354938507,
          0.1997096985578537,
          -0.06944555789232254,
          0.14008405804634094,
          0.1362055093050003,
          -0.0351652055978775,
          -0.07866945117712021,
          -0.1850215196609497,
          -0.0751674622297287,
          -0.009054135531187057,
          0.07188447564840317,
          -0.06731735914945602,
          0.04860721528530121,
          -0.194027379155159,
          0.035243358463048935,
          0.01356000080704689,
          -0.14337551593780518,
          -0.08692169189453125,
          0.1938992440700531,
          0.048950523138046265,
          -0.08249319344758987,
          0.1985742747783661,
          -0.16057996451854706,
          -0.1471633017063141,
          -0.07001598179340363,
          -0.026256516575813293,
          0.007479672320187092,
          -0.018389301374554634,
          -0.13153904676437378,
          -0.10591628402471542,
          0.1740715205669403,
          0.022840602323412895,
          0.18745006620883942,
          -0.022877676412463188,
          0.10738196969032288,
          -0.12572288513183594,
          0.15976445376873016,
          -0.07044307142496109,
          0.11314509063959122,
          0.19797052443027496,
          0.050976917147636414,
          0.016380595043301582,
          0.19783706963062286,
          0.04939621314406395,
          0.004912103526294231,
          0.18893224000930786,
          -0.12736733257770538,
          -0.1899644285440445,
          -0.1735258847475052,
          0.0824514701962471,
          0.1146281510591507,
          -0.11499278992414474,
          0.1288268268108368,
          -0.11416631191968918,
          0.1253734827041626,
          -0.08677659928798676,
          -0.11861754208803177,
          0.17916205525398254,
          0.01166162732988596,
          -0.08754204213619232,
          -0.1635882407426834,
          -0.00010947351984214038,
          -0.14351651072502136,
          -0.08731931447982788,
          -0.1591026932001114,
          0.1270606964826584,
          -0.17473988234996796,
          -0.09757506102323532,
          0.003159226616844535,
          0.09424741566181183,
          -0.18243563175201416,
          0.16214048862457275,
          -0.19114837050437927,
          0.08140484988689423,
          -0.027729669585824013,
          -0.10791373252868652,
          0.14636772871017456,
          -0.0852058008313179,
          0.16903123259544373,
          0.17746798694133759,
          -0.19508245587348938,
          -0.1956525295972824,
          0.0719354972243309,
          -0.14904004335403442,
          0.12562328577041626,
          -0.0058446903713047504,
          0.08025093376636505,
          0.09375026077032089,
          0.09628051519393921,
          0.16208429634571075,
          -0.1975272297859192,
          0.03655754029750824,
          -0.0708199068903923,
          -0.060361653566360474,
          -0.11452697217464447,
          0.11053766310214996,
          -0.06581564992666245,
          0.1730734407901764,
          0.07511372119188309,
          -0.013416005298495293,
          -0.11380219459533691,
          -0.09312281012535095,
          -0.08847707509994507,
          -0.0840652734041214,
          0.12860198318958282,
          0.1307186335325241,
          0.09132203459739685,
          0.11493352800607681,
          0.03885863721370697,
          -0.17632533609867096,
          -0.0430244579911232,
          0.09796371310949326,
          0.1508307158946991,
          -0.16105344891548157,
          -0.15656647086143494,
          -0.144658163189888,
          0.00432024197652936,
          0.011662907898426056,
          -0.18329580128192902,
          0.18203423917293549,
          -0.18923114240169525,
          0.09225885570049286,
          -0.13939113914966583,
          0.009718888439238071,
          0.08791977167129517,
          0.17267170548439026,
          0.07176523655653,
          -0.03178849816322327,
          0.18959549069404602,
          -0.15444813668727875,
          -0.08112627267837524,
          -0.15437790751457214,
          -0.17812806367874146,
          0.010255972854793072,
          -0.05198795348405838,
          -0.1595076620578766,
          0.13210897147655487,
          -0.1674966812133789,
          0.050553470849990845,
          0.010692015290260315,
          -0.13278992474079132,
          0.011839338578283787,
          -0.10259176790714264,
          -0.006577628664672375,
          0.11377037316560745,
          0.18751966953277588,
          -0.1827390491962433,
          -0.18681201338768005,
          -0.054645344614982605,
          -0.12331406772136688,
          0.02789529785513878,
          0.02705864980816841,
          0.04451710358262062,
          0.09744095057249069,
          0.018500542268157005,
          -0.021610302850604057,
          0.17233334481716156,
          -0.1787406951189041,
          -0.1147213950753212,
          -0.0707804411649704,
          0.07251076400279999,
          -0.0628887191414833,
          0.09296207875013351,
          0.07626578956842422,
          0.13280092179775238,
          -0.02143922448158264,
          -0.07967710494995117,
          0.13082844018936157,
          0.16157835721969604,
          0.1414644867181778,
          0.15860500931739807,
          -0.15394972264766693,
          -0.1365414559841156,
          0.09253605455160141,
          0.17608769237995148,
          -0.12035100162029266,
          0.03892522305250168,
          -0.02614705264568329,
          -0.07379232347011566,
          -0.13928306102752686,
          -0.08670743554830551,
          0.09759406745433807,
          -0.04070184752345085,
          0.032738927751779556,
          -0.1721070259809494,
          -0.08333678543567657,
          -0.17995502054691315,
          0.05144532397389412,
          0.007032755296677351,
          0.11183424293994904,
          0.03766205534338951,
          0.15576624870300293,
          -0.09789083898067474,
          0.053924690932035446,
          0.031991634517908096,
          0.18404746055603027,
          -0.09183534234762192,
          0.023270608857274055,
          0.04604821652173996,
          -0.15752103924751282,
          -0.19650898873806,
          0.16248169541358948,
          -0.15384162962436676,
          -0.03806250914931297,
          -0.1648973673582077,
          -0.19408409297466278,
          0.18965335190296173,
          0.025737440213561058,
          0.17692583799362183,
          0.1898108869791031,
          0.09052609652280807,
          0.12263491749763489,
          0.09158153086900711,
          -0.18332216143608093,
          0.17928645014762878,
          -0.010046039707958698,
          0.14579693973064423,
          0.18488848209381104,
          -0.03848981484770775,
          -0.0037130420096218586,
          0.014048926532268524,
          0.13965412974357605,
          0.13058122992515564,
          0.043635956943035126,
          0.0545949786901474,
          0.11143090575933456,
          -0.07886044681072235,
          0.08168575167655945,
          -0.16172361373901367,
          -0.16997261345386505,
          -0.018935905769467354,
          0.04605277627706528,
          0.013606795109808445,
          0.14420413970947266,
          0.14202551543712616,
          0.13092975318431854,
          -0.05470056086778641,
          -0.027322689071297646,
          0.03765947371721268,
          0.19935700297355652,
          -0.10657037049531937,
          -0.07692872732877731,
          -0.08320983499288559,
          -0.13626110553741455,
          0.1259440928697586,
          -0.10215931385755539,
          -0.056377485394477844,
          -0.12156036496162415,
          -0.003959394991397858,
          -0.060944851487874985,
          -0.03841814771294594,
          -0.049703069031238556,
          -0.1407143920660019,
          -0.08483628183603287,
          0.16284936666488647,
          -0.10483948141336441,
          0.07425463199615479,
          -0.11498342454433441,
          0.04463828727602959,
          0.09535947442054749,
          -0.1369144767522812,
          -0.016009056940674782,
          -0.1681658923625946,
          -0.1838041990995407,
          -0.15906161069869995,
          -0.05003733187913895,
          0.11035359650850296,
          0.1690649837255478,
          -0.1960618793964386,
          -0.08472525328397751,
          -0.17408883571624756,
          -0.16182829439640045,
          0.05204255133867264,
          0.19541428983211517,
          -0.06663359701633453,
          -0.08558125793933868,
          0.17619659006595612,
          0.005316668190062046,
          -0.14301706850528717,
          0.14663943648338318,
          -0.15637530386447906,
          -0.10088729858398438,
          0.1464291214942932,
          0.018028222024440765,
          -0.07322439551353455,
          -0.060339055955410004,
          0.08000820875167847,
          -0.03616274520754814,
          0.16517111659049988,
          -0.10912338644266129,
          -0.09921073168516159,
          -0.0347769632935524,
          -0.03728947788476944,
          -0.13485515117645264,
          0.1436423659324646,
          0.1365320384502411,
          0.1745559722185135,
          0.15812832117080688,
          0.17649775743484497,
          -0.19640372693538666,
          0.16032187640666962,
          -0.0076887346804142,
          0.15360906720161438,
          -0.058240484446287155,
          0.14917539060115814,
          0.1145186647772789,
          0.11580948531627655,
          0.11547946184873581,
          0.18167473375797272,
          0.14601874351501465,
          0.0625,
          -0.16871358454227448,
          0.12211840599775314,
          0.15995141863822937,
          0.1264205127954483,
          0.11400337517261505,
          -0.1108119860291481,
          -0.0646185502409935,
          -0.011135537177324295,
          -0.013873047195374966,
          -0.07307493686676025,
          -0.07906444370746613,
          0.1251676231622696,
          0.027341455221176147,
          0.13493379950523376,
          0.040011484175920486,
          0.12363608181476593,
          0.17170199751853943,
          0.18007321655750275,
          -0.19290049374103546,
          0.10627318918704987,
          0.0145272770896554,
          -0.1706874519586563,
          0.0696532353758812,
          -0.19184322655200958,
          -0.06208857148885727,
          -0.07950347661972046,
          0.03119155578315258,
          -0.02496802806854248,
          0.05540838837623596,
          0.03870139643549919,
          -0.14665144681930542,
          0.15578114986419678,
          0.0071652717888355255,
          -0.1332828253507614,
          -0.1942092478275299,
          0.158196359872818,
          0.11843200773000717,
          -0.15420101583003998,
          0.16674229502677917,
          0.1322871893644333,
          0.05344688147306442,
          -0.18444862961769104,
          0.020728016272187233,
          0.09976383298635483,
          -0.13406065106391907,
          -0.15937882661819458,
          -0.17174261808395386,
          0.1258748173713684,
          0.12974058091640472,
          -0.1499798595905304,
          0.09496109932661057,
          -0.15583185851573944,
          0.08151169866323471,
          -0.14506001770496368,
          0.0014476137002930045,
          -0.021341770887374878,
          0.13443133234977722,
          -0.15520501136779785,
          0.04450974985957146,
          0.14550597965717316,
          -0.06745810061693192,
          0.016446078196167946,
          0.009808355011045933,
          -0.10032566636800766,
          0.015420960262417793,
          -0.13821393251419067,
          -0.06589755415916443,
          0.12134398519992828,
          0.08725849539041519,
          0.08326749503612518,
          0.18190141022205353,
          0.0674494281411171,
          0.018415242433547974,
          -0.0546719916164875,
          -0.15169811248779297,
          0.05377534031867981,
          0.07412414997816086,
          -0.015714488923549652,
          0.1973295360803604,
          0.05785464867949486,
          0.1374330371618271,
          0.07173485308885574,
          0.06288914382457733,
          0.018644681200385094,
          -0.1825544685125351,
          -0.1543320268392563,
          0.16569720208644867,
          -0.15491841733455658,
          0.0337042398750782,
          -0.12790547311306,
          0.056591931730508804,
          -0.11549197137355804,
          0.16885660588741302,
          -0.018157601356506348,
          -0.03963986784219742,
          0.14728303253650665,
          0.13843825459480286,
          0.03415647894144058,
          0.1799774169921875,
          -0.026251275092363358,
          -0.12394791841506958,
          -0.11092589050531387,
          0.12639838457107544,
          0.0799628496170044,
          0.0585736520588398,
          -0.19016645848751068,
          -0.1746618002653122,
          0.15391485393047333,
          0.10263973474502563,
          -0.0710650160908699,
          0.10476138442754745,
          0.008022738620638847,
          -0.10652682185173035,
          -0.07784170657396317,
          0.07939457148313522,
          0.16032978892326355,
          -0.0062629906460642815,
          -0.18955865502357483,
          0.011197268962860107,
          0.09627643972635269,
          -0.13880470395088196,
          0.021019311621785164,
          0.020436905324459076,
          0.154427632689476,
          -0.15669046342372894,
          0.14368316531181335,
          0.1961846649646759,
          0.1222391128540039,
          0.15784378349781036,
          -0.18474972248077393,
          -0.07376643270254135,
          0.14692619442939758,
          0.12247378379106522,
          -0.10609129816293716,
          -0.1618638038635254,
          -0.00394069217145443,
          -0.10244567692279816,
          -0.10200135409832001,
          -0.15950606763362885,
          0.003963664174079895,
          -0.07858896255493164,
          -0.1286955326795578,
          -0.148107647895813,
          -0.0615505613386631,
          -0.13586203753948212,
          -0.17601491510868073,
          -0.1230698972940445,
          0.17111745476722717,
          -0.146319180727005,
          0.16702544689178467,
          0.02981157973408699,
          -0.09496553987264633,
          0.15046116709709167,
          -0.11802426725625992,
          0.06821839511394501,
          0.027094833552837372,
          0.1488373875617981,
          -0.06832198053598404,
          0.008576062507927418,
          0.07224014401435852,
          -0.19398701190948486,
          0.013275000266730785,
          -0.09220948815345764,
          0.03238978981971741,
          -0.13484400510787964,
          0.15493281185626984,
          0.03020210936665535,
          0.008905015885829926,
          0.050762999802827835,
          -0.13828393816947937,
          -0.13567282259464264,
          -0.19154676795005798,
          0.08217857778072357,
          0.1783425509929657,
          0.14447021484375,
          -0.02276391163468361,
          -0.1606503576040268,
          0.027494944632053375,
          -0.05843040719628334,
          0.07320024818181992,
          0.01649777777493,
          -0.11336387693881989,
          -0.10369464755058289,
          -0.019632231444120407,
          0.12964968383312225,
          0.09808274358510971,
          -0.10557525604963303,
          0.08498521894216537,
          -0.04775983467698097,
          0.043392278254032135,
          -0.10545163601636887,
          0.1817035973072052,
          -0.08212897181510925,
          0.07666774094104767,
          -0.03638103976845741,
          -0.1149711087346077,
          0.17977871000766754,
          0.11703968793153763,
          0.012814069166779518,
          -0.1550237387418747,
          -0.12357813119888306,
          0.17013821005821228,
          -0.0835452675819397,
          0.017859697341918945,
          0.1664157658815384,
          -0.04507781192660332,
          -0.043910566717386246,
          0.11179351061582565,
          -0.1591341495513916,
          -0.19781255722045898,
          -0.0069447592832148075,
          0.20006054639816284,
          0.1799549013376236,
          -0.14446547627449036,
          0.07068269699811935,
          -0.04371744766831398,
          0.07957828789949417,
          0.1592005044221878,
          0.12472084164619446,
          0.08942487835884094,
          0.1180778443813324,
          -0.16060802340507507,
          0.019100386649370193,
          -0.16461282968521118,
          0.019587844610214233,
          0.1704993098974228,
          -0.10097973793745041,
          0.058676254004240036,
          0.10745332390069962,
          -0.00961642898619175,
          -0.04336153715848923,
          0.05442139878869057,
          0.11680541932582855,
          0.1850416660308838,
          -0.11783953011035919,
          0.018641339614987373,
          0.18592898547649384,
          0.01710127666592598,
          0.1102505624294281,
          -0.1409514993429184,
          -0.09902121126651764,
          0.08380336314439774,
          0.0057418751530349255,
          0.1589222401380539,
          -0.023035960271954536,
          0.016788097098469734,
          0.0030028086621314287,
          0.013296762481331825,
          0.12684960663318634,
          0.12166684865951538,
          0.18284769356250763,
          0.17625708878040314,
          -0.05449843034148216,
          0.1628367155790329,
          0.0067556193098425865,
          0.07660188525915146,
          -0.04383115470409393,
          0.059866342693567276,
          -0.0485733300447464,
          -0.06659895926713943,
          0.007177548483014107,
          0.11567384004592896,
          -0.005473872181028128,
          -0.1109975054860115,
          -0.004524200689047575,
          0.0051785544492304325,
          -0.18725141882896423,
          -0.13595743477344513,
          0.07069328427314758,
          -0.027271045371890068,
          0.18982699513435364,
          0.06966006010770798,
          -0.08099321275949478,
          -0.05251109600067139,
          0.006588457617908716,
          -0.051773250102996826,
          -0.031144121661782265,
          0.02595994621515274,
          0.08411013334989548,
          -0.004574839491397142,
          0.13263751566410065,
          0.13240960240364075,
          0.057403963059186935,
          -0.16438914835453033,
          -0.15622220933437347,
          -0.08243177831172943,
          -0.09011086821556091,
          -0.027507582679390907,
          -0.08394119888544083,
          -0.07704035937786102,
          -0.03531002253293991,
          -0.1343071311712265,
          -0.1278928965330124,
          -0.14472997188568115,
          0.12914171814918518,
          0.17823725938796997,
          0.08027027547359467,
          0.12442200630903244,
          -0.020999876782298088,
          -0.045187510550022125,
          0.1316947489976883,
          0.0316421315073967,
          0.04141705483198166,
          0.18069221079349518,
          -0.02891417406499386,
          0.05295515060424805,
          -0.09607898443937302,
          -0.1658056229352951,
          -0.056274138391017914,
          -0.13455387949943542,
          -0.04429379478096962,
          0.1410468965768814,
          0.15374191105365753,
          0.00577116571366787,
          0.07286857813596725,
          0.14012494683265686,
          0.1589294821023941,
          0.1822027713060379,
          0.15080609917640686,
          0.016187628731131554,
          -0.09498947858810425,
          -0.10872139781713486,
          0.017646778374910355,
          -0.14665581285953522,
          0.19466188549995422,
          0.1813441962003708,
          0.13527822494506836,
          -0.14848993718624115,
          0.03849115967750549,
          -0.1926872730255127,
          -0.10973769426345825,
          0.17477332055568695,
          0.054147396236658096,
          -0.18894053995609283,
          -0.10247790068387985,
          -0.16943828761577606,
          0.019001075997948647,
          0.10619251430034637,
          -0.017051028087735176,
          -0.042462654411792755,
          -0.003659094450995326,
          -0.059159230440855026,
          -0.0350366085767746,
          0.01412661001086235,
          0.07532998919487,
          -0.038394879549741745,
          0.04212565720081329,
          0.1912238746881485,
          0.14503951370716095,
          -0.1734859198331833,
          0.13553941249847412,
          -0.13449405133724213,
          0.14407092332839966,
          -0.1545526385307312,
          0.08186357468366623,
          0.1482848972082138,
          0.015724657103419304,
          -0.02286224626004696,
          -0.05455635115504265,
          0.138379767537117,
          -0.18627239763736725,
          0.13765035569667816,
          0.13995227217674255,
          0.024617493152618408,
          -0.15255320072174072,
          0.003949187230318785,
          0.08736339956521988,
          0.0954742282629013,
          0.09029697626829147,
          -0.15949943661689758,
          -0.08520936965942383,
          -0.07744254171848297,
          0.1604452133178711,
          0.16844327747821808,
          -0.11839869618415833,
          -0.06008366495370865,
          -0.09848226606845856,
          -0.009827702306210995,
          -0.15206430852413177,
          0.09026007354259491,
          -0.10815626382827759,
          -0.12153297662734985,
          0.15296393632888794,
          0.1674385368824005,
          -0.09787815064191818,
          -0.12826205790042877,
          0.17279499769210815,
          0.035139039158821106,
          0.03783620148897171,
          0.12326163798570633,
          0.08019719272851944,
          -0.10346435010433197,
          -0.16226263344287872,
          0.1502327024936676,
          -0.08017970621585846,
          0.09303103387355804,
          -0.09182477742433548,
          -0.10466805100440979,
          -0.19602948427200317,
          -0.06608150154352188,
          -0.09116820245981216,
          0.18289715051651,
          0.038277383893728256,
          -0.030662674456834793,
          -0.050904352217912674,
          0.06621421128511429,
          -0.09932924062013626,
          -0.07082052528858185,
          -0.15781685709953308,
          -0.05671802535653114,
          -0.004891461227089167,
          -0.0974622517824173,
          0.03298480063676834,
          -0.07626735419034958,
          0.15308067202568054,
          0.14969490468502045,
          0.1540759652853012,
          -0.19553616642951965,
          0.14587628841400146,
          -0.04732964187860489,
          0.0966823622584343,
          -0.06973721086978912,
          -0.12456203997135162,
          -0.02450576424598694,
          0.17785391211509705,
          -0.04758502170443535,
          0.17634306848049164,
          -0.08957184851169586,
          -0.05993272364139557,
          -0.02139529027044773,
          -0.028116032481193542,
          0.13923010230064392,
          0.08452530205249786,
          -0.170415461063385,
          -0.13461628556251526,
          0.14543186128139496,
          -0.13517707586288452,
          0.14649493992328644,
          0.18999359011650085,
          0.0009074814151972532,
          -0.18376579880714417,
          -0.11462043225765228,
          0.1455293744802475,
          0.16349302232265472,
          0.059948887676000595,
          0.14362424612045288,
          -0.1734129637479782,
          -0.112207792699337,
          -0.005412447731941938,
          -0.19066226482391357,
          0.11214551329612732,
          -0.06781350821256638,
          0.06499239802360535,
          0.19962607324123383,
          0.02518833428621292,
          -0.14296676218509674,
          0.043886516243219376,
          0.15872234106063843,
          -0.15709936618804932,
          0.046771008521318436,
          -0.12078247964382172,
          -0.02231079712510109,
          0.009334160946309566,
          -0.09112749993801117,
          0.024211030453443527,
          0.19004885852336884,
          -0.0033028293401002884,
          -0.1392628699541092,
          -0.08116177469491959,
          0.1983967274427414,
          -0.1882287561893463,
          -0.03132351115345955,
          -0.07449358701705933,
          -0.005653774365782738,
          0.17281094193458557,
          0.19732044637203217,
          0.1984877735376358,
          -0.18041685223579407,
          0.013241730630397797,
          -0.1485474556684494,
          -0.06407517939805984,
          -0.10340407490730286,
          0.15565989911556244,
          0.03053918294608593,
          -0.06773994863033295,
          0.1034984141588211,
          0.0463956743478775,
          0.17200741171836853,
          -0.04748254641890526,
          -0.10540910810232162,
          0.08527994155883789,
          -0.08225324004888535,
          0.012599431909620762,
          -0.16537803411483765,
          0.12144563347101212,
          -0.11683039367198944,
          -0.13327598571777344,
          0.0774562731385231,
          0.2002566158771515,
          -0.1869431734085083,
          -0.0562918484210968,
          -0.11874224990606308,
          -0.14457352459430695,
          -0.0892108678817749,
          -0.11971881985664368,
          0.07687263190746307,
          -0.15916262567043304,
          0.06567540764808655,
          -0.1492764949798584,
          0.06408286839723587,
          -0.10765239596366882,
          -0.19498220086097717,
          -0.1865752935409546,
          0.031496256589889526,
          0.08189960569143295,
          0.1528673619031906,
          -0.16837064921855927,
          -0.13506688177585602,
          -0.06983573734760284,
          -0.05581722781062126,
          -0.18893422186374664,
          -0.09801153093576431,
          -0.06344899535179138,
          0.1653062403202057,
          0.00010275933891534805,
          -0.01180688664317131,
          0.17980872094631195,
          -0.09030023217201233,
          0.07447553426027298,
          0.011419162154197693,
          0.047241613268852234,
          0.12185544520616531,
          0.018850263208150864,
          -0.04886522889137268,
          0.0625,
          -0.111624576151371,
          0.1349661648273468,
          0.06725756824016571,
          0.17684577405452728,
          0.04184510558843613,
          -0.05896053463220596,
          -0.19744329154491425,
          -0.12848779559135437,
          0.051875606179237366,
          -0.14627528190612793,
          -0.04468194767832756,
          -0.03113160841166973,
          -0.18130478262901306,
          0.1023271456360817,
          0.08082349598407745,
          0.03101995773613453,
          -0.02695292979478836,
          0.06173000857234001,
          0.05895920470356941,
          0.08285890519618988,
          -0.1565798819065094,
          -0.0943325012922287,
          0.07634048163890839,
          -0.0197254978120327,
          0.19129832088947296,
          0.12305771559476852,
          0.12511403858661652,
          0.06612452119588852,
          0.10797198861837387,
          -0.04440680518746376,
          0.0961407721042633,
          -0.12221994251012802,
          -0.05447676032781601,
          0.02364414744079113,
          0.08704759925603867,
          0.1242133155465126,
          0.1702425330877304,
          0.11272840201854706,
          0.0401046983897686,
          -0.12785197794437408,
          -0.0775865986943245,
          -0.11333692073822021,
          0.13147468864917755,
          0.1603756546974182,
          -0.18797853589057922,
          0.12070194631814957,
          0.11692123860120773,
          -0.022477662190794945,
          0.042578261345624924,
          -0.08183375746011734,
          -0.11255912482738495,
          0.03127449005842209,
          -0.05093466117978096,
          0.10941534489393234,
          0.04402521997690201,
          0.07561693340539932,
          -0.08729460090398788,
          -0.09284935891628265,
          -0.03384475037455559,
          -0.10124587267637253,
          -0.1491699367761612,
          0.049821771681308746,
          0.19415418803691864,
          -0.1684003472328186,
          -0.023896532133221626,
          0.033897530287504196,
          -0.19204777479171753,
          -0.1734974980354309,
          -0.14447005093097687,
          0.006699040997773409,
          -0.0695381611585617,
          0.15491697192192078,
          0.12065151333808899,
          0.06667774170637131,
          -0.18249307572841644,
          0.11519405990839005,
          0.10354690998792648,
          0.15705075860023499,
          0.12209920585155487,
          -0.05297283083200455,
          0.007469533011317253,
          0.1995750069618225,
          0.04960039258003235,
          0.13865020871162415,
          -0.13730688393115997,
          -0.18621061742305756,
          -0.16381528973579407,
          -0.08788640797138214,
          0.09937582165002823,
          0.08997847139835358,
          -0.1438046246767044,
          0.13527905941009521,
          0.06212020292878151,
          -0.13118088245391846,
          -0.10830684751272202,
          -0.12380112707614899,
          -0.11372292786836624,
          0.0009938759030774236,
          -0.19007913768291473,
          -0.10047410428524017,
          0.17200270295143127,
          -0.19732137024402618,
          0.08987190574407578,
          0.06975589692592621,
          -0.132210373878479,
          0.16668207943439484,
          0.01147318072617054,
          0.15764464437961578,
          0.1140870451927185,
          -0.026034925132989883,
          -0.17105960845947266,
          -0.06421755254268646,
          0.049227792769670486,
          0.1824687272310257,
          -0.06712763756513596,
          0.06562643498182297,
          0.0805240347981453,
          -0.03282121568918228,
          0.17719461023807526,
          -0.14878568053245544,
          0.009955363348126411,
          0.004965521860867739,
          -0.048842232674360275,
          -0.07383771985769272,
          0.007218698970973492,
          -0.042830780148506165,
          0.15129610896110535,
          0.1909707486629486,
          -0.08198101818561554,
          -0.1414795070886612,
          0.05118377506732941,
          0.1475546658039093,
          -0.06201514974236488,
          0.06073445826768875,
          0.07778159528970718,
          -0.03484557941555977,
          -0.1708722561597824,
          -0.03726363927125931,
          -0.1588909775018692,
          -0.051731258630752563,
          -0.11362463980913162,
          0.11656630784273148,
          -0.175184428691864,
          0.012403012253344059,
          0.08829747885465622,
          0.0388590544462204,
          -0.11590541899204254,
          -0.029618721455335617,
          -0.09009239822626114,
          -0.05167044699192047,
          0.09618977457284927,
          -0.17860911786556244,
          -0.19256816804409027,
          0.05667540803551674,
          -0.10185682028532028,
          -0.10873971879482269,
          0.19771915674209595,
          -0.16105680167675018,
          0.16240665316581726,
          0.033344514667987823,
          -0.14184047281742096,
          -0.18081679940223694,
          0.15745563805103302,
          0.007244864013046026,
          -0.08197993040084839,
          -0.004530949983745813,
          -0.15137384831905365,
          0.15899457037448883,
          -0.0881442129611969,
          0.0978836640715599,
          0.16249944269657135,
          -0.16424496471881866,
          -0.15812720358371735,
          0.16899490356445312,
          0.04036169871687889,
          -0.07421482354402542,
          -0.15024571120738983,
          0.1591375768184662,
          0.1948598474264145,
          0.09583257138729095,
          -0.09704413264989853,
          0.17769943177700043,
          0.10083380341529846,
          0.13314685225486755,
          0.1093401312828064,
          0.0026364366058260202,
          0.006653220858424902,
          0.14165039360523224,
          0.03702915087342262,
          0.1762586086988449,
          -0.07049749791622162,
          0.17038790881633759,
          -0.10141727328300476,
          -0.18406209349632263,
          -0.14406564831733704,
          0.03380405902862549,
          -0.006875650957226753,
          -0.14693665504455566,
          -0.01699252240359783,
          -0.006093427538871765,
          0.076131671667099,
          -0.17160333693027496,
          0.11216600239276886,
          0.17202003300189972,
          -0.07020742446184158,
          -0.039641398936510086,
          -0.11997799575328827,
          0.1802489161491394,
          0.10452113300561905,
          0.021430613473057747,
          -0.10767261683940887,
          -0.11716384440660477,
          -0.12207447737455368,
          -0.02468646876513958,
          -0.13418222963809967,
          0.04826410114765167,
          -0.1250908374786377,
          -0.18819284439086914,
          -0.036327458918094635,
          -0.11457379162311554,
          -0.04784703254699707,
          0.058013901114463806,
          -0.14405745267868042,
          0.11965100467205048,
          0.021489344537258148,
          0.19899973273277283,
          0.18239077925682068,
          -0.11961520463228226,
          0.09917137771844864,
          -0.15010876953601837,
          -0.08950791507959366,
          -0.06842765212059021,
          -0.017256442457437515,
          0.1553843915462494,
          0.07268549501895905,
          0.007256325799971819,
          0.09723757207393646,
          0.1913929432630539,
          -0.05992446467280388,
          -0.19218206405639648,
          0.11882756650447845,
          -0.06812349706888199,
          -0.033809058368206024,
          0.047102756798267365,
          -0.13764409720897675,
          -0.10052806884050369,
          0.09629567712545395,
          -0.0957946851849556,
          0.09071828424930573,
          0.13600470125675201,
          -0.14391614496707916,
          0.1511145681142807,
          -0.17882613837718964,
          -0.14454545080661774,
          -0.002913889940828085,
          -0.1077059954404831,
          -0.0016352138482034206,
          0.1104973629117012,
          -0.08959297835826874,
          0.06218981370329857,
          -0.025780802592635155,
          0.14236165583133698,
          -0.06308722496032715,
          -0.0025662463158369064,
          0.018743153661489487,
          -0.0926341637969017,
          -0.13619202375411987,
          -0.10454223304986954,
          -0.11564959585666656,
          0.10469922423362732,
          -0.03883012384176254,
          -0.15900173783302307,
          0.005702847149223089,
          0.10055972635746002,
          -0.09881006926298141,
          0.1985190063714981,
          -0.04474950581789017,
          0.07047969102859497,
          0.11442280560731888,
          0.17885230481624603,
          0.06843331456184387,
          -0.17357155680656433,
          0.03194018825888634,
          -0.006097299978137016,
          -0.01686718873679638,
          -0.12624914944171906,
          0.05293301120400429,
          -0.01368409488350153,
          -0.14547871053218842,
          0.024743160232901573,
          -0.1121554970741272,
          -0.1805475801229477,
          0.13745370507240295,
          0.1959095150232315,
          -0.14041651785373688,
          0.14479433000087738,
          -0.08075076341629028,
          0.108527772128582,
          0.04111789911985397,
          0.17544035613536835,
          0.13039946556091309,
          -0.04453815892338753,
          0.010880660265684128,
          0.010835082270205021,
          0.16913290321826935,
          -0.13069646060466766,
          0.06009407714009285,
          0.062065500766038895,
          -0.14206984639167786,
          0.004503595642745495,
          -0.0830240249633789,
          -0.14155663549900055,
          -0.17976237833499908,
          -0.1348339021205902,
          0.13421183824539185,
          0.10501161962747574,
          0.13703890144824982,
          -0.09734547138214111,
          -0.10358506441116333,
          0.10361303389072418,
          -0.06951848417520523,
          -0.12461625039577484,
          -0.01589537411928177,
          0.0896872952580452,
          0.047937873750925064,
          -0.12518556416034698,
          0.2006354182958603,
          0.0899883508682251,
          -0.12545762956142426,
          -0.05874459445476532,
          -0.014195644296705723,
          0.10118360817432404,
          -0.03951675444841385,
          0.04356341436505318,
          0.04685087874531746,
          0.16418272256851196,
          0.06569948047399521,
          -0.08671993762254715,
          0.020146187394857407,
          -0.16780193150043488,
          0.13038673996925354,
          -0.11844148486852646,
          -0.04573114961385727,
          -0.006994875613600016,
          -0.165569007396698,
          0.15952466428279877,
          -0.1932031512260437,
          0.15387330949306488,
          0.10719586908817291,
          0.13124610483646393,
          0.08985666185617447,
          0.1249166876077652,
          -0.08284448087215424,
          -0.03666035458445549,
          -0.08900334686040878,
          -0.1956937164068222,
          0.16901803016662598,
          0.0889577567577362,
          -0.05678568780422211,
          -0.14238286018371582,
          -0.1700916886329651,
          -0.1831928938627243,
          -0.11284855753183365,
          0.08711040765047073,
          -0.1824435293674469,
          0.09376135468482971,
          -0.17887917160987854,
          -0.1738266497850418,
          0.021505754441022873,
          0.07587319612503052,
          0.08843696862459183,
          0.12100882083177567,
          -0.19181329011917114,
          0.17779895663261414,
          -0.12601757049560547,
          0.13518081605434418,
          -0.18659056723117828,
          0.08901403099298477,
          0.13567474484443665,
          -0.05826568976044655,
          0.020232239738106728,
          0.19816038012504578,
          -0.14997689425945282,
          -0.06520558148622513,
          -0.0526285246014595,
          -0.17419670522212982,
          -0.18175479769706726,
          0.00899621844291687,
          0.03900584578514099,
          -0.10271614789962769,
          0.12911413609981537,
          -0.0677492693066597,
          -0.09711499512195587,
          -0.086497001349926,
          0.0997927114367485,
          -0.08785282075405121,
          -0.01961854286491871,
          0.1859869509935379,
          -0.012000717222690582,
          0.04735993593931198,
          0.11166039854288101,
          -0.0691564530134201,
          0.008135711774230003,
          -0.05707576498389244,
          0.04167082905769348,
          0.10461941361427307,
          0.10969746857881546,
          -0.1577177345752716,
          0.022730927914381027,
          -0.050516676157712936,
          -0.04754512384533882,
          0.00042278203181922436,
          -0.0055975541472435,
          0.11012376844882965,
          -0.06669946014881134,
          0.145889550447464,
          0.0515412762761116,
          -0.024648861959576607,
          -0.018860839307308197,
          -0.03668321296572685,
          0.0295159500092268,
          0.15807907283306122,
          0.07853421568870544,
          0.09291982650756836,
          0.07118915021419525,
          -0.0733509361743927,
          -0.1940467208623886,
          -0.17176702618598938,
          0.1158742904663086,
          -0.1551903784275055,
          0.09841787815093994,
          -0.08980946242809296,
          -0.17177480459213257,
          -0.19718147814273834,
          -0.09126155823469162,
          -0.05847826600074768,
          -0.13048703968524933,
          0.023614443838596344,
          -0.13296876847743988,
          -0.19068975746631622,
          0.17145757377147675,
          0.07925006747245789,
          -0.11387880146503448,
          0.057297274470329285,
          0.16819685697555542,
          0.07852178066968918,
          0.15829506516456604,
          -0.13030992448329926,
          0.05283528193831444,
          -0.036934297531843185,
          0.1144416406750679,
          -0.09525241702795029,
          0.05015667900443077,
          0.06993544101715088,
          -0.1909167617559433,
          0.14810322225093842,
          -0.004314945545047522,
          0.07014056295156479,
          -0.10166516155004501,
          -0.08125787228345871,
          0.1450033187866211,
          0.04634222015738487,
          0.06698441505432129,
          0.05898434296250343,
          0.04287859424948692,
          -0.18813064694404602,
          -0.1191072091460228,
          0.15041093528270721,
          0.14625804126262665,
          -0.1514756977558136,
          -0.0000446011072199326,
          0.014505943283438683,
          0.19232521951198578,
          0.09437856078147888,
          -0.063931405544281,
          0.08628375083208084,
          0.04590192809700966,
          -0.08176024258136749,
          0.1798812597990036,
          -0.14759574830532074,
          0.004997764248400927,
          -0.08400563895702362,
          -0.13793005049228668,
          -0.15747982263565063,
          -0.14286525547504425,
          -0.18630225956439972,
          0.08608244359493256,
          0.1260429173707962,
          0.08465585112571716,
          0.0450979582965374,
          0.14676795899868011,
          0.16263461112976074,
          -0.05895346775650978,
          -0.06470160186290741,
          0.14816175401210785,
          -0.08099647611379623,
          0.014395899139344692,
          0.1795218139886856,
          -0.1344151645898819,
          0.1469629406929016,
          -0.1469840556383133,
          0.15684491395950317,
          0.06690318882465363,
          -0.0792229101061821,
          0.060296010226011276,
          0.05337052419781685,
          -0.12476495653390884,
          -0.1914578527212143,
          -0.05879897251725197,
          0.17848758399486542,
          -0.0588238388299942,
          0.06129058822989464,
          -0.16781029105186462,
          -0.040259428322315216,
          0.13465890288352966,
          0.11581876873970032,
          0.06323438882827759,
          -0.1805739551782608,
          0.06684613972902298,
          0.010913273319602013,
          0.19931268692016602,
          -0.029072623699903488,
          -0.09444928914308548,
          0.10231971740722656,
          -0.0532667338848114,
          0.030461685732007027,
          0.19863927364349365,
          0.19062460958957672,
          -0.18149597942829132,
          0.17745734751224518,
          -0.15748362243175507,
          0.012688950635492802,
          0.0032836885657161474,
          -0.007337804883718491,
          0.11535722017288208,
          0.0038155638612806797,
          -0.10172397643327713,
          -0.14083705842494965,
          -0.004781447350978851,
          -0.16575361788272858,
          -0.03355499356985092,
          -0.05365515500307083,
          0.10371070355176926,
          0.04247941076755524,
          -0.02031698450446129,
          0.12095671892166138,
          0.057443756610155106,
          0.1982884258031845,
          0.16759061813354492,
          0.03847018629312515,
          0.08278883993625641,
          -0.02165192924439907,
          -0.10978703200817108,
          -0.16676804423332214,
          0.19765153527259827,
          -0.03041604347527027,
          -0.15489859879016876,
          0.07895220816135406,
          0.1307109296321869,
          0.09725265204906464,
          -0.17512790858745575,
          -0.005144445225596428,
          -0.09176801145076752,
          0.19998392462730408,
          -0.13483887910842896,
          -0.10561313480138779,
          -0.00922631286084652,
          0.17821717262268066,
          -0.014321958646178246,
          -0.028035463765263557,
          -0.05794119834899902,
          -0.025521699339151382,
          0.1737644225358963,
          -0.014483083039522171,
          -0.14032359421253204,
          -0.17925775051116943,
          -0.05902227386832237,
          0.09188967198133469,
          -0.04342249780893326,
          0.023423440754413605,
          -0.1540871560573578,
          0.08041030168533325,
          -0.14356942474842072,
          0.07126571238040924,
          0.10091259330511093,
          0.025912174955010414,
          -0.1718953251838684,
          -0.057727981358766556,
          -0.0802295133471489,
          0.014453382231295109,
          0.17718355357646942,
          0.10844410955905914,
          -0.09691870212554932,
          -0.044995322823524475,
          -0.1628810614347458,
          0.17770835757255554,
          -0.12949150800704956,
          -0.13160671293735504,
          0.16200041770935059,
          0.08235471695661545,
          0.19374093413352966,
          -0.031303126364946365,
          -0.1917135864496231,
          -0.032916318625211716,
          -0.10986850410699844,
          -0.12893186509609222,
          0.17766666412353516,
          -0.10071516036987305,
          -0.17243628203868866,
          -0.01643170602619648,
          -0.19115731120109558,
          -0.13562700152397156,
          -0.021168462932109833,
          -0.10801656544208527,
          -0.08052506297826767,
          -0.11683104932308197,
          -0.04319239407777786,
          0.10335773229598999,
          0.03373656049370766,
          -0.1474863737821579,
          0.11343090981245041,
          0.1933874785900116,
          0.1020868793129921,
          -0.1688040941953659,
          -0.07403036952018738,
          0.044844940304756165,
          -0.11707834899425507,
          0.04989413917064667,
          -0.17116084694862366,
          0.19007991254329681,
          -0.03800824657082558,
          0.097727932035923,
          0.10985136777162552,
          0.18923519551753998,
          -0.12628109753131866,
          0.15852653980255127,
          0.06490485370159149,
          -0.1644756942987442,
          0.13949798047542572,
          -0.1720988154411316,
          0.10214567929506302,
          0.19539739191532135,
          0.0379289835691452,
          -0.02567473240196705,
          0.1096692755818367,
          0.08734866231679916,
          -0.07912643998861313,
          0.13690388202667236,
          -0.19502177834510803,
          0.0685599148273468,
          -0.11118575930595398,
          0.02510342188179493,
          -0.0823574960231781,
          -0.07932564616203308,
          0.18055421113967896,
          0.19933584332466125,
          -0.0722789540886879,
          0.09075647592544556,
          0.17651546001434326,
          -0.11574672162532806,
          -0.1803838461637497,
          0.142378568649292,
          0.003153005614876747,
          0.041137196123600006,
          0.14596930146217346,
          0.08683943748474121,
          -0.1332736760377884,
          0.05369978025555611,
          0.08092261850833893,
          0.1006864458322525,
          0.11568064242601395,
          -0.07223023474216461,
          0.09659864008426666,
          0.011277970857918262,
          0.03504936397075653,
          0.09816092252731323,
          -0.1884433478116989
        ],
        [
          -0.16837874054908752,
          0.17766903340816498,
          -0.07030197978019714,
          0.025104915723204613,
          0.048867687582969666,
          0.1804913878440857,
          -0.015882520005106926,
          0.0699981227517128,
          -0.194299578666687,
          -0.15837156772613525,
          -0.07958363741636276,
          0.10881945490837097,
          0.030343109741806984,
          -0.1576957255601883,
          0.03244411572813988,
          -0.037960804998874664,
          0.029981445521116257,
          -0.028474539518356323,
          0.006164223421365023,
          -0.11475960165262222,
          0.19292107224464417,
          -0.07619393616914749,
          -0.02540341392159462,
          -0.14921307563781738,
          -0.18016605079174042,
          -0.06789039075374603,
          0.03873277083039284,
          -0.029839912429451942,
          0.0926612913608551,
          0.08591867983341217,
          -0.12966123223304749,
          0.17610564827919006,
          -0.04697374999523163,
          0.09129943698644638,
          -0.06674349308013916,
          0.012145054526627064,
          -0.1745300441980362,
          0.028649190440773964,
          -0.09753800928592682,
          0.1888435333967209,
          -0.08775997906923294,
          0.06011011451482773,
          -0.11223828047513962,
          0.153764545917511,
          0.028387323021888733,
          -0.14368833601474762,
          -0.18416611850261688,
          -0.17512914538383484,
          -0.0017824068199843168,
          0.04305502399802208,
          -0.04394298046827316,
          -0.026326388120651245,
          -0.17947179079055786,
          -0.18922299146652222,
          0.1167621910572052,
          -0.19263388216495514,
          -0.12303939461708069,
          0.03184680640697479,
          -0.03698281571269035,
          -0.04359960928559303,
          0.0879950299859047,
          0.05781382694840431,
          -0.122161865234375,
          -0.19193166494369507,
          -0.12988996505737305,
          -0.06046992540359497,
          0.022527791559696198,
          -0.12930312752723694,
          -0.08930931985378265,
          0.13072502613067627,
          -0.01799183152616024,
          0.04982849955558777,
          0.14182104170322418,
          -0.0010963025270029902,
          -0.11451099067926407,
          -0.11828763782978058,
          -0.19328147172927856,
          0.05881614238023758,
          0.04586689919233322,
          -0.14183588325977325,
          -0.19571387767791748,
          -0.1486199051141739,
          0.004492058418691158,
          -0.16069772839546204,
          0.1175990179181099,
          -0.05925450846552849,
          -0.19146154820919037,
          0.03571081906557083,
          -0.08792411535978317,
          -0.13329507410526276,
          0.15314652025699615,
          0.17258590459823608,
          0.024773724377155304,
          0.038812458515167236,
          -0.17522048950195312,
          0.036862391978502274,
          -0.06927524507045746,
          -0.15622980892658234,
          0.017097368836402893,
          0.16736751794815063,
          -0.0385456383228302,
          0.08345366269350052,
          0.044947512447834015,
          0.1944432556629181,
          0.1875600516796112,
          0.13524650037288666,
          -0.005256891716271639,
          -0.11773250252008438,
          -0.19076085090637207,
          -0.19049425423145294,
          -0.0993189737200737,
          0.0952676460146904,
          0.11707768589258194,
          0.05872856080532074,
          -0.14240503311157227,
          0.04718215391039848,
          0.07426833361387253,
          -0.12647901475429535,
          0.045772284269332886,
          0.15996813774108887,
          -0.08043798804283142,
          0.057449549436569214,
          0.025859905406832695,
          0.1484755426645279,
          -0.138519749045372,
          -0.10407587885856628,
          -0.11882524192333221,
          0.042894359678030014,
          0.03166039288043976,
          0.1520591527223587,
          0.1620732992887497,
          0.1139238178730011,
          0.04810944199562073,
          -0.05170457810163498,
          0.11062382906675339,
          0.08143448829650879,
          -0.04130242392420769,
          -0.1673855483531952,
          -0.146189883351326,
          0.148105651140213,
          0.1760130375623703,
          0.18004758656024933,
          0.029539376497268677,
          -0.05523492768406868,
          -0.06900184601545334,
          -0.1303466409444809,
          -0.011768967844545841,
          -0.1718301773071289,
          0.015363684855401516,
          -0.12606309354305267,
          0.010545920580625534,
          -0.019126659259200096,
          -0.03649101406335831,
          -0.1274186223745346,
          -0.014666460454463959,
          0.1650250107049942,
          0.042129725217819214,
          -0.04853661358356476,
          0.11326523125171661,
          0.046200014650821686,
          0.19046823680400848,
          0.10865728557109833,
          -0.006909469608217478,
          0.186595156788826,
          0.10797858983278275,
          0.15463712811470032,
          -0.1482744812965393,
          -0.04512086138129234,
          -0.06120479479432106,
          -0.06378458440303802,
          0.07842734456062317,
          -0.10756651312112808,
          -0.19390223920345306,
          0.19687335193157196,
          -0.14331430196762085,
          0.1519508808851242,
          0.08326088637113571,
          -0.1330871433019638,
          -0.16756747663021088,
          -0.13174019753932953,
          0.004684323910623789,
          -0.08609939366579056,
          0.17756900191307068,
          -0.10203960537910461,
          0.048327334225177765,
          -0.04011477902531624,
          0.05707911029458046,
          0.11778053641319275,
          0.01276396494358778,
          0.09895090758800507,
          0.03181929513812065,
          0.15480129420757294,
          0.09706910699605942,
          -0.18169112503528595,
          -0.1480684131383896,
          -0.017150098457932472,
          0.061039891093969345,
          0.13785332441329956,
          -0.18739213049411774,
          0.04257543757557869,
          0.12858447432518005,
          0.10922133922576904,
          0.05668997764587402,
          0.011071335524320602,
          -0.11935124546289444,
          -0.1610747128725052,
          -0.13278518617153168,
          -0.01570114493370056,
          -0.15905356407165527,
          -0.11633475869894028,
          -0.08583983033895493,
          0.06713751703500748,
          -0.10162316262722015,
          0.18981614708900452,
          0.11548156291246414,
          -0.04472710192203522,
          -0.00007602916593896225,
          0.0033855836372822523,
          0.007427011616528034,
          0.08169543743133545,
          -0.024511896073818207,
          -0.07283618301153183,
          -0.1882152557373047,
          -0.06206129118800163,
          0.1679738312959671,
          0.007896521128714085,
          0.07472576200962067,
          -0.028860120102763176,
          0.07549029588699341,
          0.08312012255191803,
          0.1393657922744751,
          -0.015053799375891685,
          0.003379192901775241,
          -0.19348570704460144,
          -0.021185684949159622,
          0.060926586389541626,
          -0.19430606067180634,
          -0.0012624056544154882,
          0.04989556968212128,
          -0.18754707276821136,
          0.009545613080263138,
          -0.14084795117378235,
          -0.08236861974000931,
          0.03851267322897911,
          -0.06341750919818878,
          -0.16889458894729614,
          0.09652919322252274,
          -0.02858167700469494,
          -0.01877514459192753,
          0.04284963011741638,
          0.060390882194042206,
          0.05120119825005531,
          0.19076880812644958,
          0.048255447298288345,
          -0.0041887592524290085,
          0.11951947212219238,
          -0.048005715012550354,
          -0.051084648817777634,
          0.07719533145427704,
          -0.08322489261627197,
          0.010881916619837284,
          -0.1921793669462204,
          0.16048264503479004,
          -0.0633900836110115,
          -0.17581169307231903,
          -0.13090576231479645,
          0.052365534007549286,
          0.12472651153802872,
          -0.018613096326589584,
          -0.03856324777007103,
          0.1379958838224411,
          -0.16007207334041595,
          0.09369546920061111,
          0.08591708540916443,
          0.04869307950139046,
          0.019336923956871033,
          0.12943537533283234,
          0.11470568180084229,
          0.006371511612087488,
          -0.11639469116926193,
          0.09977743029594421,
          -0.018947431817650795,
          -0.18651869893074036,
          0.09485386312007904,
          0.0637521743774414,
          0.05258326977491379,
          0.07499859482049942,
          -0.08899863809347153,
          -0.11457674205303192,
          -0.11935944110155106,
          -0.0464700348675251,
          0.14775101840496063,
          0.09743327647447586,
          0.17857815325260162,
          0.00912526249885559,
          -0.12054485827684402,
          -0.06032823398709297,
          -0.13618460297584534,
          0.007333377376198769,
          0.16705556213855743,
          -0.16915377974510193,
          0.0324094183743,
          0.15406359732151031,
          -0.0625,
          -0.14688943326473236,
          -0.14334702491760254,
          -0.1799985021352768,
          0.0633469745516777,
          -0.09368201345205307,
          -0.08388736099004745,
          0.19939453899860382,
          0.15714402496814728,
          -0.07555293291807175,
          -0.10145065933465958,
          0.0421794094145298,
          0.028382504358887672,
          0.09632652252912521,
          0.11835187673568726,
          -0.06092231348156929,
          -0.1270102709531784,
          0.1762877106666565,
          0.02561008185148239,
          0.18298746645450592,
          -0.10375045984983444,
          -0.16524654626846313,
          -0.10889235138893127,
          -0.038853853940963745,
          0.026354113593697548,
          -0.1503753811120987,
          0.05161597207188606,
          0.16801010072231293,
          0.014150219038128853,
          0.18701311945915222,
          0.025151487439870834,
          -0.00020485131244640797,
          -0.02658669836819172,
          0.06045597046613693,
          -0.05724010989069939,
          0.19787076115608215,
          -0.04875926300883293,
          0.18626143038272858,
          0.18357720971107483,
          0.16393092274665833,
          0.05729871243238449,
          0.1202673614025116,
          0.13459841907024384,
          -0.19547158479690552,
          0.15660662949085236,
          -0.022081155329942703,
          0.16409698128700256,
          -0.08467532694339752,
          0.07140907645225525,
          -0.09328796714544296,
          -0.05939211696386337,
          -0.00862722098827362,
          0.05407189577817917,
          0.060081616044044495,
          -0.1692914515733719,
          -0.01569177582859993,
          0.14047935605049133,
          0.10360156744718552,
          -0.14846181869506836,
          -0.10039737075567245,
          -0.1343298852443695,
          0.05096808075904846,
          0.04901764169335365,
          0.0348736047744751,
          0.006775971502065659,
          -0.0910056009888649,
          -0.16164423525333405,
          0.08133172243833542,
          -0.1368710845708847,
          0.09977632761001587,
          0.07854358106851578,
          -0.07788671553134918,
          -0.06471884250640869,
          0.01171838864684105,
          -0.10681396722793579,
          0.08472470939159393,
          0.14865341782569885,
          -0.18440550565719604,
          0.08929502218961716,
          -0.17647425830364227,
          -0.05422261729836464,
          0.006421255879104137,
          0.07417408376932144,
          -0.028391584753990173,
          -0.17958737909793854,
          0.0455479770898819,
          -0.11184193938970566,
          -0.024421745911240578,
          0.14986678957939148,
          0.17399026453495026,
          -0.007227749098092318,
          0.04421836882829666,
          0.09754443913698196,
          0.16631148755550385,
          -0.10790589451789856,
          -0.18341577053070068,
          0.01867002435028553,
          0.18342381715774536,
          0.08512962609529495,
          -0.19964948296546936,
          0.16061030328273773,
          0.08904467523097992,
          0.07793539762496948,
          0.04042172059416771,
          0.09268748760223389,
          -0.1522798091173172,
          0.1900196075439453,
          0.14849981665611267,
          -0.13550415635108948,
          0.009084333665668964,
          0.15990757942199707,
          0.14657318592071533,
          -0.10917086899280548,
          0.05308163911104202,
          -0.150592640042305,
          0.08787603676319122,
          -0.03562058135867119,
          0.13879379630088806,
          0.031900763511657715,
          -0.0263667032122612,
          -0.12594129145145416,
          -0.10458467900753021,
          -0.19480806589126587,
          0.04672951623797417,
          0.11365772038698196,
          0.17826120555400848,
          -0.15665307641029358,
          -0.0055028279311954975,
          0.17142292857170105,
          -0.06761905550956726,
          0.12333456426858902,
          -0.17884153127670288,
          -0.162073016166687,
          -0.18231803178787231,
          0.17661845684051514,
          0.14621476829051971,
          -0.07581595331430435,
          0.03496648743748665,
          -0.0620366632938385,
          -0.15467216074466705,
          0.009821157902479172,
          0.1843065768480301,
          0.08673785626888275,
          0.0022644612472504377,
          -0.09734047204256058,
          -0.07365558296442032,
          -0.12350644916296005,
          0.07981284707784653,
          0.0022532667499035597,
          -0.12063303589820862,
          0.11975690722465515,
          -0.160042405128479,
          0.10044846683740616,
          0.05723070353269577,
          -0.09479069709777832,
          -0.048057228326797485,
          0.15613596141338348,
          -0.07744085043668747,
          0.10302387923002243,
          0.15169550478458405,
          0.17541038990020752,
          0.11733707040548325,
          0.15335452556610107,
          -0.022419480606913567,
          -0.1433628797531128,
          0.04669175669550896,
          0.1434103101491928,
          -0.15275610983371735,
          0.055696286261081696,
          -0.15474651753902435,
          -0.18887189030647278,
          -0.1758003830909729,
          0.05669431760907173,
          0.04203765466809273,
          0.09053117781877518,
          0.05069045349955559,
          0.01556880958378315,
          0.052519697695970535,
          -0.17990541458129883,
          -0.11392934620380402,
          0.058614205569028854,
          -0.11933028697967529,
          -0.004510385449975729,
          0.048643119633197784,
          -0.14538423717021942,
          -0.058732736855745316,
          0.07652018964290619,
          0.19614647328853607,
          -0.11452358216047287,
          -0.03171743452548981,
          0.12528102099895477,
          -0.01836266741156578,
          0.069879911839962,
          -0.19350764155387878,
          -0.08014842122793198,
          0.04690318927168846,
          -0.019395748153328896,
          0.1424296349287033,
          0.15915369987487793,
          -0.06854704767465591,
          0.07177376747131348,
          -0.07439186424016953,
          -0.19056850671768188,
          0.15597893297672272,
          0.06088188290596008,
          0.12170760333538055,
          0.08749421685934067,
          0.12636487185955048,
          -0.10866440832614899,
          0.16491474211215973,
          -0.19790951907634735,
          0.183234304189682,
          -0.19410473108291626,
          0.14516429603099823,
          -0.018207993358373642,
          -0.03177956864237785,
          0.1741960346698761,
          -0.19342340528964996,
          -0.19045282900333405,
          0.009356134571135044,
          -0.2000926434993744,
          0.07913032174110413,
          -0.1083512082695961,
          -0.11729180067777634,
          0.1422032117843628,
          -0.11151229590177536,
          0.15341924130916595,
          -0.16369616985321045,
          -0.16514818370342255,
          -0.0307616014033556,
          0.07845080643892288,
          0.02439085766673088,
          -0.17463664710521698,
          0.027236895635724068,
          -0.14930561184883118,
          0.09526199847459793,
          -0.16121619939804077,
          -0.19213902950286865,
          0.09814369678497314,
          0.12788797914981842,
          -0.021230928599834442,
          -0.13026145100593567,
          -0.18126340210437775,
          0.0036330928560346365,
          0.060269951820373535,
          0.1832287609577179,
          0.09686550498008728,
          -0.08829370141029358,
          0.09304438531398773,
          0.09207005798816681,
          -0.15687647461891174,
          -0.13917210698127747,
          0.051077838987112045,
          -0.10940276831388474,
          0.16798855364322662,
          -0.06975043565034866,
          -0.006528059486299753,
          0.06670896708965302,
          0.17771005630493164,
          -0.0475597120821476,
          -0.14448955655097961,
          -0.11774437874555588,
          -0.12412934005260468,
          -0.1983112394809723,
          -0.06361397355794907,
          0.0939115434885025,
          0.1889287382364273,
          0.1528771072626114,
          -0.0468205064535141,
          0.17537818849086761,
          -0.08212019503116608,
          -0.19363701343536377,
          -0.1672426164150238,
          -0.07905109971761703,
          0.0010409210808575153,
          0.1577853113412857,
          0.18529020249843597,
          -0.08777154982089996,
          -0.09860192239284515,
          0.08544672280550003,
          -0.13022452592849731,
          -0.17750853300094604,
          -0.00041779683670029044,
          0.07048416137695312,
          -0.09492691606283188,
          0.024441076442599297,
          0.0916719064116478,
          0.1646462231874466,
          -0.07541423290967941,
          0.0475812666118145,
          0.1381276547908783,
          0.13585568964481354,
          0.04385070502758026,
          -0.15778975188732147,
          -0.12012116611003876,
          -0.09902642667293549,
          -0.1052936464548111,
          -0.1210077702999115,
          -0.13956928253173828,
          0.19644106924533844,
          -0.028374016284942627,
          -0.1292763501405716,
          0.030660560354590416,
          -0.12737014889717102,
          0.012385036796331406,
          -0.06904421746730804,
          0.15004873275756836,
          -0.13694876432418823,
          0.06688429415225983,
          0.19515348970890045,
          -0.1475304514169693,
          0.14501021802425385,
          -0.19385096430778503,
          -0.12107211351394653,
          -0.14397050440311432,
          0.16423477232456207,
          0.1515064686536789,
          -0.031925927847623825,
          0.1981772482395172,
          0.1564069539308548,
          0.023892754688858986,
          -0.12195571511983871,
          0.01731058396399021,
          -0.1169721856713295,
          -0.07668676972389221,
          -0.10500592738389969,
          0.13878877460956573,
          0.06640496850013733,
          -0.023762891069054604,
          -0.07409913837909698,
          0.1183348074555397,
          -0.009751665405929089,
          -0.1357886642217636,
          -0.09316473454236984,
          0.020710034295916557,
          0.1864994466304779,
          -0.1907876878976822,
          0.12713927030563354,
          -0.06411207467317581,
          0.08654937893152237,
          -0.10701862722635269,
          -0.14130890369415283,
          0.022149067372083664,
          0.17944808304309845,
          -0.034403398633003235,
          0.032696742564439774,
          -0.1017586886882782,
          0.06533965468406677,
          -0.107530377805233,
          0.13224339485168457,
          0.1432352066040039,
          0.053813982754945755,
          -0.07240447402000427,
          0.07333938032388687,
          -0.020946521311998367,
          0.003121039131656289,
          0.07788210362195969,
          0.03821506351232529,
          0.1314673274755478,
          0.04265299811959267,
          0.14033371210098267,
          -0.07576155662536621,
          0.048584382981061935,
          0.11397375911474228,
          -0.0025614367332309484,
          -0.03106732852756977,
          -0.1666969358921051,
          -0.16581009328365326,
          -0.03377438709139824,
          -0.1274595707654953,
          0.15929767489433289,
          -0.12811844050884247,
          -0.10936423391103745,
          0.19723862409591675,
          -0.09550531208515167,
          -0.16708052158355713,
          -0.02228469029068947,
          0.1471819132566452,
          -0.10036860406398773,
          0.09270691871643066,
          0.1528334617614746,
          -0.17831869423389435,
          -0.12924692034721375,
          0.008286980912089348,
          0.14285199344158173,
          -0.11073049157857895,
          -0.0875510424375534,
          -0.036176469177007675,
          -0.10113754123449326,
          -0.11224435269832611,
          -0.07155298441648483,
          -0.05611293017864227,
          0.05804843828082085,
          0.13160257041454315,
          -0.06189453601837158,
          0.12377272546291351,
          -0.11259496212005615,
          0.0822947546839714,
          -0.021790646016597748,
          -0.047980308532714844,
          -0.10358929634094238,
          -0.0956244021654129,
          0.007742192130535841,
          0.12859691679477692,
          -0.04124243184924126,
          -0.19121496379375458,
          -0.1193108931183815,
          -0.12707167863845825,
          -0.03806367889046669,
          0.05690647289156914,
          -0.08222539722919464,
          -0.03525281697511673,
          -0.13081732392311096,
          0.046610984951257706,
          -0.1282869577407837,
          0.18222956359386444,
          -0.01821838691830635,
          0.11401586979627609,
          -0.05243195220828056,
          0.045268792659044266,
          -0.07770808041095734,
          0.029949869960546494,
          -0.1170497015118599,
          0.13302069902420044,
          0.10082974284887314,
          -0.06364879012107849,
          0.15528765320777893,
          -0.1775263547897339,
          0.005465129390358925,
          -0.19841168820858002,
          0.17177973687648773,
          0.0618244893848896,
          -0.11453121900558472,
          0.061174992471933365,
          -0.16782687604427338,
          0.00471452996134758,
          -0.04520152509212494,
          -0.1614445298910141,
          0.13758651912212372,
          -0.16008703410625458,
          -0.1953618824481964,
          0.18839938938617706,
          -0.14597254991531372,
          -0.0856584832072258,
          -0.09017056971788406,
          -0.16796141862869263,
          -0.10437539219856262,
          -0.1566430628299713,
          -0.061237771064043045,
          -0.19263720512390137,
          -0.15082912147045135,
          0.13320882618427277,
          0.18044081330299377,
          -0.15267805755138397,
          0.05886247754096985,
          0.055531665682792664,
          -0.15754471719264984,
          -0.12961700558662415,
          0.1242956891655922,
          0.05219028890132904,
          0.047380462288856506,
          0.1611015647649765,
          0.1232895627617836,
          -0.05272246152162552,
          -0.08934193849563599,
          0.11370280385017395,
          -0.12178732454776764,
          -0.05852661281824112,
          0.06554143875837326,
          0.15963082015514374,
          0.10269439220428467,
          -0.16503416001796722,
          0.07253123819828033,
          -0.13625438511371613,
          0.12357378751039505,
          -0.006088959518820047,
          0.10767818987369537,
          0.10482217371463776,
          -0.10824079066514969,
          -0.15943175554275513,
          -0.06696236878633499,
          -0.04362456873059273,
          0.10217007994651794,
          -0.1993202567100525,
          -0.08743494004011154,
          -0.1695418804883957,
          -0.10249770432710648,
          -0.03842021897435188,
          0.13920913636684418,
          -0.10310156643390656,
          -0.1259092539548874,
          0.1692294031381607,
          -0.025201285257935524,
          -0.12191364169120789,
          -0.13807491958141327,
          0.02578027732670307,
          -0.08493772149085999,
          -0.022217050194740295,
          0.1601322442293167,
          0.16564637422561646,
          0.16421401500701904,
          -0.0752396509051323,
          0.042899344116449356,
          -0.15373189747333527,
          -0.16664646565914154,
          -0.14060159027576447,
          -0.15494433045387268,
          0.11975307017564774,
          -0.14497467875480652,
          0.12972474098205566,
          0.17009033262729645,
          0.1320444941520691,
          0.15883901715278625,
          0.1749114692211151,
          0.1397855132818222,
          -0.11143183708190918,
          0.07936640828847885,
          0.09437713772058487,
          -0.08485335856676102,
          -0.16907203197479248,
          -0.13462494313716888,
          -0.11424718052148819,
          0.18723376095294952,
          -0.020910082384943962,
          -0.041489873081445694,
          -0.07282194495201111,
          0.03637290000915527,
          -0.01631695218384266,
          0.18256205320358276,
          0.19598270952701569,
          0.11078489571809769,
          -0.20006875693798065,
          0.0601251944899559,
          0.09174814075231552,
          -0.19954882562160492,
          0.10215408354997635,
          0.08810297399759293,
          -0.05105550214648247,
          0.06435233354568481,
          -0.17657867074012756,
          -0.14506253600120544,
          0.15072587132453918,
          0.17434705793857574,
          0.10437167435884476,
          0.11183156073093414,
          -0.17758676409721375,
          -0.11997881531715393,
          -0.18643751740455627,
          0.11969813704490662,
          0.0642680823802948,
          0.060802657157182693,
          0.07951219379901886,
          -0.08178623765707016,
          -0.15762478113174438,
          -0.14675816893577576,
          -0.018812449648976326,
          0.022714514285326004,
          0.013632693327963352,
          0.11935499310493469,
          -0.14615239202976227,
          -0.11520220339298248,
          -0.07575725764036179,
          0.14156505465507507,
          -0.04821094125509262,
          -0.16864164173603058,
          -0.1464151293039322,
          -0.06726483255624771,
          0.12888480722904205,
          -0.14802983403205872,
          -0.11514226347208023,
          -0.14250384271144867,
          0.17090930044651031,
          0.07780386507511139,
          0.10045607388019562,
          0.09983709454536438,
          -0.06551428139209747,
          -0.012179753743112087,
          -0.11225109547376633,
          -0.19016079604625702,
          -0.12190794944763184,
          0.08722874522209167,
          0.10903001576662064,
          0.06707862764596939,
          -0.1971474587917328,
          0.19825629889965057,
          -0.07069465517997742,
          -0.1303868144750595,
          -0.11847610026597977,
          0.09554121643304825,
          -0.1023334190249443,
          0.1389182209968567,
          -0.09014256298542023,
          0.08656821399927139,
          -0.09374978393316269,
          0.17250360548496246,
          -0.19017326831817627,
          0.19708141684532166,
          0.08315611630678177,
          0.16407835483551025,
          -0.0036787239369004965,
          0.07349367439746857,
          0.15151028335094452,
          -0.12215517461299896,
          0.11347360163927078,
          -0.18922430276870728,
          0.13017024099826813,
          -0.1426357477903366,
          -0.09266488254070282,
          -0.12334093451499939,
          -0.07184052467346191,
          -0.07337202876806259,
          0.06466986984014511,
          -0.17582494020462036,
          -0.019602447748184204,
          -0.0978693887591362,
          -0.10629625618457794,
          0.16005337238311768,
          -0.10065209865570068,
          0.10646320879459381,
          0.11285801976919174,
          0.18556588888168335,
          0.02229074202477932,
          0.06173624470829964,
          -0.09174340963363647,
          0.17717652022838593,
          -0.13795994222164154,
          -0.16983748972415924,
          0.1328064352273941,
          -0.08408883213996887,
          -0.09323769807815552,
          -0.10514116287231445,
          -0.09706482291221619,
          0.10989649593830109,
          0.07023286819458008,
          0.12712986767292023,
          0.040287651121616364,
          -0.15321655571460724,
          -0.11000453680753708,
          0.15517480671405792,
          -0.008854782208800316,
          0.04056410863995552,
          0.19798320531845093,
          -0.08520965278148651,
          -0.19314740598201752,
          -0.1476571410894394,
          -0.019256049767136574,
          -0.17919673025608063,
          -0.04175441339612007,
          -0.031876735389232635,
          -0.07825974375009537,
          0.17346298694610596,
          -0.05501502379775047,
          0.19828343391418457,
          0.19187675416469574,
          -0.06000563129782677,
          0.030834294855594635,
          0.12366432696580887,
          -0.05513213202357292,
          -0.18202732503414154,
          0.1713191717863083,
          0.03435620293021202,
          -0.16444610059261322,
          -0.01925053633749485,
          -0.13330993056297302,
          -0.039447519928216934,
          -0.03283584117889404,
          -0.04655333608388901,
          0.06314942985773087,
          -0.08415430039167404,
          -0.07014390826225281,
          0.129415825009346,
          0.16307201981544495,
          -0.18576207756996155,
          0.006452849600464106,
          -0.18424075841903687,
          0.1473238468170166,
          0.16686086356639862,
          0.013189773075282574,
          0.09688542783260345,
          -0.17452536523342133,
          0.08470706641674042,
          0.06394243240356445,
          -0.023729873821139336,
          0.1793067455291748,
          0.04545266553759575,
          0.06904752552509308,
          -0.11155610531568527,
          0.17784295976161957,
          0.0038495627231895924,
          0.013608875684440136,
          0.11391857266426086,
          0.1957290917634964,
          -0.101284459233284,
          0.020277945324778557,
          0.157305046916008,
          -0.0791279748082161,
          -0.16355693340301514,
          0.1613018810749054,
          0.026407213881611824,
          -0.11912845820188522,
          0.02822948805987835,
          -0.0294820386916399,
          -0.15830832719802856,
          0.06949855387210846,
          0.10224481672048569,
          -0.07160982489585876,
          -0.0781983956694603,
          -0.047579675912857056,
          -0.07076604664325714,
          -0.004188463091850281,
          -0.17854291200637817,
          0.13982637226581573,
          -0.1835893839597702,
          0.10441760718822479,
          -0.14462964236736298,
          0.09228688478469849,
          -0.16409757733345032,
          -0.07142968475818634,
          0.07942637801170349,
          -0.09270350635051727,
          -0.09287087619304657,
          -0.007773010991513729,
          -0.16298332810401917,
          0.06937597692012787,
          -0.060980070382356644,
          0.08357406407594681,
          0.17982086539268494,
          0.19001586735248566,
          0.09587729722261429,
          -0.11211460083723068,
          0.0907105952501297,
          -0.1510591357946396,
          0.15890522301197052,
          0.13514137268066406,
          -0.07422508299350739,
          -0.03901590406894684,
          -0.03999616205692291,
          -0.07793968915939331,
          -0.0026642007287591696,
          0.034617044031620026,
          -0.13919465243816376,
          0.11823917925357819,
          0.19036106765270233,
          -0.1880415380001068,
          0.15563730895519257,
          -0.16448722779750824,
          0.09674764424562454,
          -0.1395478993654251,
          -0.19496391713619232,
          -0.12305774539709091,
          0.039740897715091705,
          0.19783611595630646,
          0.1116594523191452,
          -0.012823815457522869,
          0.02939377911388874,
          -0.1898830085992813,
          0.0765315517783165,
          -0.09270568937063217,
          -0.13167855143547058,
          -0.09339317679405212,
          0.18372170627117157,
          0.034619640558958054,
          0.16883999109268188,
          -0.03747861832380295,
          0.13945303857326508,
          0.13620562851428986,
          -0.0891588106751442,
          -0.1457582712173462,
          -0.11085852980613708,
          0.19576585292816162,
          0.009045176208019257,
          0.013935364782810211,
          -0.096041239798069,
          -0.17679278552532196,
          0.1878034770488739,
          -0.18391205370426178,
          -0.1091952994465828,
          0.1133819967508316,
          0.07621632516384125,
          0.05103851109743118,
          0.013158867135643959,
          -0.1096683070063591,
          -0.07003208249807358,
          -0.055809613317251205,
          -0.1386321634054184,
          0.059071168303489685,
          -0.06231068819761276,
          -0.08610717952251434,
          -0.10225667804479599,
          -0.19004015624523163,
          -0.06316755712032318,
          0.0749906450510025,
          0.11849703639745712,
          -0.1288001984357834,
          0.19926834106445312,
          -0.1369268000125885,
          -0.08358285576105118,
          -0.04222644120454788,
          0.1420026570558548,
          -0.005613878834992647,
          0.19859233498573303,
          0.19743062555789948,
          0.08402026444673538,
          0.12328235805034637,
          -0.009406143799424171,
          0.08232326060533524,
          0.06544262170791626,
          0.036307137459516525,
          0.18261554837226868,
          -0.17017744481563568,
          0.0744643285870552,
          0.03976748138666153,
          -0.06047846004366875,
          -0.09081738442182541,
          0.03065977804362774,
          -0.07063096016645432,
          0.004240128211677074,
          0.17694228887557983,
          0.04787474870681763,
          -0.0015586039517074823,
          -0.16583840548992157,
          -0.16106294095516205,
          0.13638003170490265,
          -0.09267323464155197,
          -0.06028584763407707,
          -0.10309867560863495,
          0.18037520349025726,
          0.1363620162010193,
          -0.06720507889986038,
          0.1391797661781311,
          -0.17596811056137085,
          -0.02148723229765892,
          0.07651448994874954,
          -0.1912509649991989,
          -0.01625664345920086,
          0.15561415255069733,
          -0.004612923599779606,
          -0.15351170301437378,
          0.06470082700252533,
          -0.08366771042346954,
          -0.19327332079410553,
          0.023823203518986702,
          -0.0903782993555069,
          -0.10207753628492355,
          0.1836412101984024,
          0.1185908243060112,
          0.007703023497015238,
          -0.09467630833387375,
          0.009457878768444061,
          0.18191666901111603,
          -0.05264151096343994,
          -0.14762957394123077,
          0.07387831807136536,
          0.1590941995382309,
          -0.05037586763501167,
          0.014769457280635834,
          0.13811267912387848,
          -0.13786210119724274,
          -0.036039117723703384,
          0.16539132595062256,
          0.0510113462805748,
          -0.12025754898786545,
          0.09443388134241104,
          -0.12556980550289154,
          0.11643720418214798,
          -0.10682693868875504,
          -0.0019174388144165277,
          -0.07618146389722824,
